|--- accuracy <= 0.85
|   |--- accuracy <= 0.83
|   |   |--- class: 0
|   |--- accuracy >  0.83
|   |   |--- var_rt <= 245.81
|   |   |   |--- class: 0
|   |   |--- var_rt >  245.81
|   |   |   |--- class: 0
|--- accuracy >  0.85
|   |--- class: 1
