|--- var_rt <= 539.07
|   |--- rt_cv <= 1.35
|   |   |--- var_rt <= 478.06
|   |   |   |--- class: 0
|   |   |--- var_rt >  478.06
|   |   |   |--- class: 0
|   |--- rt_cv >  1.35
|   |   |--- class: 0
|--- var_rt >  539.07
|   |--- accuracy <= 0.56
|   |   |--- class: 0
|   |--- accuracy >  0.56
|   |   |--- accuracy <= 0.83
|   |   |   |--- class: 1
|   |   |--- accuracy >  0.83
|   |   |   |--- class: 0
